Language model created by QuickLM on Mon Dec 14 18:28:40 EST 2015
Copyright (c) 1996-2010 Carnegie Mellon University and Alexander I. Rudnicky

The model is in standard ARPA format, designed by Doug Paul while he was at MITRE.

The code that was used to produce this language model is available in Open Source.
Please visit http://www.speech.cs.cmu.edu/tools/ for more information

The (fixed) discount mass is 0.5. The backoffs are computed using the ratio method.
This model based on a corpus of 44 sentences and 64 words

\data\
ngram 1=64
ngram 2=111
ngram 3=89

\1-grams:
-0.9080 </s> -0.3010
-0.9080 <s> -0.2325
-2.5514 ANYTHING -0.2437
-2.0743 ARE -0.2961
-2.2504 BACKWARD -0.2437
-2.0743 BEGIN -0.2353
-2.5514 BUSY -0.2437
-2.5514 CALIBRATION -0.2437
-2.5514 CANCEL -0.2986
-2.5514 CHARITY'S -0.2998
-2.5514 COME -0.2986
-2.5514 CURRENT -0.2986
-2.5514 DISMISS -0.2437
-2.2504 DOING -0.2423
-2.5514 DOWN -0.2437
-2.5514 END -0.2437
-2.5514 ENTER -0.2961
-2.2504 EXPLORATION -0.2437
-2.5514 FORGET -0.2974
-2.2504 FORWARD -0.2437
-1.9494 GO -0.2936
-2.5514 GOT -0.2974
-2.5514 GRASP -0.2998
-2.5514 GREETINGS -0.2986
-2.5514 HAVE -0.2974
-2.5514 HELLO -0.2437
-2.2504 HERE -0.2437
-2.5514 HOW -0.2974
-2.5514 I -0.2998
-2.5514 I'M -0.2986
-2.5514 INTRODUCE -0.2998
-2.0743 IT -0.2437
-2.5514 JARVIS -0.2437
-2.5514 LAB -0.2437
-2.5514 LEFT -0.2437
-2.5514 LET'S -0.2974
-2.5514 LOCALIZATION -0.2998
-1.9494 MIMIC -0.2437
-2.2504 MOVE -0.2961
-2.5514 MUTE -0.2437
-2.2504 NO -0.2423
-2.5514 NOTHING -0.2437
-2.5514 OFFICE -0.2437
-2.5514 POWER -0.2998
-2.5514 RIGHT -0.2437
-2.5514 SHUT -0.2998
-2.5514 SPIN -0.2437
-2.5514 SPINNING -0.2437
-2.5514 SQUIRTLE -0.2437
-2.5514 START -0.2961
-2.0743 STOP -0.2936
-2.2504 TASK -0.2437
-2.5514 THANKS -0.2437
-2.2504 TO -0.2986
-2.2504 TURN -0.2986
-2.2504 TURTLEBOT -0.2437
-2.5514 UP -0.2437
-2.5514 VOICE -0.2998
-2.5514 WHAT -0.2974
-2.5514 WHATS -0.2998
-2.5514 YES -0.2437
-1.9494 YOU -0.2381
-2.5514 YOUR -0.2986
-2.5514 YOURSELF -0.2437

\2-grams:
-1.9445 <s> ARE 0.0000
-1.6435 <s> BEGIN -0.1249
-1.9445 <s> CANCEL 0.0000
-1.9445 <s> COME 0.0000
-1.9445 <s> DISMISS 0.0000
-1.9445 <s> DOING -0.1761
-1.9445 <s> END 0.0000
-1.9445 <s> ENTER 0.0000
-1.9445 <s> FORGET 0.0000
-1.3424 <s> GO 0.0000
-1.9445 <s> GREETINGS 0.0000
-1.9445 <s> HELLO 0.0000
-1.9445 <s> HOW 0.0000
-1.9445 <s> I 0.0000
-1.9445 <s> I'M 0.0000
-1.9445 <s> INTRODUCE 0.0000
-1.9445 <s> JARVIS 0.0000
-1.9445 <s> LET'S 0.0000
-1.6435 <s> MOVE 0.0000
-1.9445 <s> MUTE 0.0000
-1.6435 <s> NO 0.0000
-1.9445 <s> NOTHING 0.0000
-1.9445 <s> POWER 0.0000
-1.9445 <s> SPIN 0.0000
-1.9445 <s> SPINNING 0.0000
-1.9445 <s> SQUIRTLE 0.0000
-1.9445 <s> START 0.0000
-1.4674 <s> STOP 0.0000
-1.6435 <s> TURN 0.0000
-1.9445 <s> TURTLEBOT 0.0000
-1.9445 <s> VOICE 0.0000
-1.9445 <s> WHAT 0.0000
-1.9445 <s> WHATS 0.0000
-1.9445 <s> YES 0.0000
-1.9445 <s> YOU -0.2430
-0.3010 ANYTHING </s> -0.3010
-0.3010 ARE YOU -0.0969
-0.3010 BACKWARD </s> -0.3010
-0.7782 BEGIN </s> -0.3010
-0.7782 BEGIN EXPLORATION 0.0000
-0.7782 BEGIN MIMIC 0.0000
-0.3010 BUSY </s> -0.3010
-0.3010 CALIBRATION </s> -0.3010
-0.3010 CANCEL EXPLORATION 0.0000
-0.3010 CHARITY'S OFFICE 0.0000
-0.3010 COME HERE 0.0000
-0.3010 CURRENT TASK 0.0000
-0.3010 DISMISS </s> -0.3010
-0.6021 DOING </s> -0.3010
-0.6021 DOING ANYTHING 0.0000
-0.3010 DOWN </s> -0.3010
-0.3010 END </s> -0.3010
-0.3010 ENTER MIMIC 0.0000
-0.3010 EXPLORATION </s> -0.3010
-0.3010 FORGET IT 0.0000
-0.3010 FORWARD </s> -0.3010
-0.9031 GO BACKWARD 0.0000
-0.9031 GO FORWARD 0.0000
-0.6021 GO TO 0.0000
-0.3010 GOT IT 0.0000
-0.3010 GRASP LAB 0.0000
-0.3010 GREETINGS TURTLEBOT 0.0000
-0.3010 HAVE IT 0.0000
-0.3010 HELLO </s> -0.3010
-0.3010 HERE </s> -0.3010
-0.3010 HOW ARE 0.0000
-0.3010 I GOT 0.0000
-0.3010 I'M HERE 0.0000
-0.3010 INTRODUCE YOURSELF 0.0000
-0.3010 IT </s> -0.3010
-0.3010 JARVIS </s> -0.3010
-0.3010 LAB </s> -0.3010
-0.3010 LEFT </s> -0.3010
-0.3010 LET'S BEGIN -0.2218
-0.3010 LOCALIZATION CALIBRATION 0.0000
-0.3010 MIMIC </s> -0.3010
-0.6021 MOVE BACKWARD 0.0000
-0.6021 MOVE FORWARD 0.0000
-0.3010 MUTE </s> -0.3010
-0.6021 NO </s> -0.3010
-0.6021 NO THANKS 0.0000
-0.3010 NOTHING </s> -0.3010
-0.3010 OFFICE </s> -0.3010
-0.3010 POWER SHUT 0.0000
-0.3010 RIGHT </s> -0.3010
-0.3010 SHUT DOWN 0.0000
-0.3010 SPIN </s> -0.3010
-0.3010 SPINNING </s> -0.3010
-0.3010 SQUIRTLE </s> -0.3010
-0.3010 START MIMIC 0.0000
-0.7782 STOP CURRENT 0.0000
-0.7782 STOP MIMIC 0.0000
-0.7782 STOP YOUR 0.0000
-0.3010 TASK </s> -0.3010
-0.3010 THANKS </s> -0.3010
-0.6021 TO CHARITY'S 0.0000
-0.6021 TO GRASP 0.0000
-0.6021 TURN LEFT 0.0000
-0.6021 TURN RIGHT 0.0000
-0.3010 TURTLEBOT </s> -0.3010
-0.3010 UP </s> -0.3010
-0.3010 VOICE LOCALIZATION 0.0000
-0.3010 WHAT ARE 0.0000
-0.3010 WHATS UP 0.0000
-0.3010 YES </s> -0.3010
-0.9031 YOU </s> -0.3010
-0.9031 YOU BUSY 0.0000
-0.9031 YOU DOING -0.1761
-0.9031 YOU HAVE 0.0000
-0.3010 YOUR TASK 0.0000
-0.3010 YOURSELF </s> -0.3010

\3-grams:
-0.3010 <s> ARE YOU
-0.6021 <s> BEGIN EXPLORATION
-0.6021 <s> BEGIN MIMIC
-0.3010 <s> CANCEL EXPLORATION
-0.3010 <s> COME HERE
-0.3010 <s> DISMISS </s>
-0.3010 <s> DOING ANYTHING
-0.3010 <s> END </s>
-0.3010 <s> ENTER MIMIC
-0.3010 <s> FORGET IT
-0.9031 <s> GO BACKWARD
-0.9031 <s> GO FORWARD
-0.6021 <s> GO TO
-0.3010 <s> GREETINGS TURTLEBOT
-0.3010 <s> HELLO </s>
-0.3010 <s> HOW ARE
-0.3010 <s> I GOT
-0.3010 <s> I'M HERE
-0.3010 <s> INTRODUCE YOURSELF
-0.3010 <s> JARVIS </s>
-0.3010 <s> LET'S BEGIN
-0.6021 <s> MOVE BACKWARD
-0.6021 <s> MOVE FORWARD
-0.3010 <s> MUTE </s>
-0.6021 <s> NO </s>
-0.6021 <s> NO THANKS
-0.3010 <s> NOTHING </s>
-0.3010 <s> POWER SHUT
-0.3010 <s> SPIN </s>
-0.3010 <s> SPINNING </s>
-0.3010 <s> SQUIRTLE </s>
-0.3010 <s> START MIMIC
-0.7782 <s> STOP CURRENT
-0.7782 <s> STOP MIMIC
-0.7782 <s> STOP YOUR
-0.6021 <s> TURN LEFT
-0.6021 <s> TURN RIGHT
-0.3010 <s> TURTLEBOT </s>
-0.3010 <s> VOICE LOCALIZATION
-0.3010 <s> WHAT ARE
-0.3010 <s> WHATS UP
-0.3010 <s> YES </s>
-0.3010 <s> YOU HAVE
-0.7782 ARE YOU </s>
-0.7782 ARE YOU BUSY
-0.7782 ARE YOU DOING
-0.3010 BEGIN EXPLORATION </s>
-0.3010 BEGIN MIMIC </s>
-0.3010 CANCEL EXPLORATION </s>
-0.3010 CHARITY'S OFFICE </s>
-0.3010 COME HERE </s>
-0.3010 CURRENT TASK </s>
-0.3010 DOING ANYTHING </s>
-0.3010 ENTER MIMIC </s>
-0.3010 FORGET IT </s>
-0.3010 GO BACKWARD </s>
-0.3010 GO FORWARD </s>
-0.6021 GO TO CHARITY'S
-0.6021 GO TO GRASP
-0.3010 GOT IT </s>
-0.3010 GRASP LAB </s>
-0.3010 GREETINGS TURTLEBOT </s>
-0.3010 HAVE IT </s>
-0.3010 HOW ARE YOU
-0.3010 I GOT IT
-0.3010 I'M HERE </s>
-0.3010 INTRODUCE YOURSELF </s>
-0.3010 LET'S BEGIN </s>
-0.3010 LOCALIZATION CALIBRATION </s>
-0.3010 MOVE BACKWARD </s>
-0.3010 MOVE FORWARD </s>
-0.3010 NO THANKS </s>
-0.3010 POWER SHUT DOWN
-0.3010 SHUT DOWN </s>
-0.3010 START MIMIC </s>
-0.3010 STOP CURRENT TASK
-0.3010 STOP MIMIC </s>
-0.3010 STOP YOUR TASK
-0.3010 TO CHARITY'S OFFICE
-0.3010 TO GRASP LAB
-0.3010 TURN LEFT </s>
-0.3010 TURN RIGHT </s>
-0.3010 VOICE LOCALIZATION CALIBRATION
-0.3010 WHAT ARE YOU
-0.3010 WHATS UP </s>
-0.3010 YOU BUSY </s>
-0.3010 YOU DOING </s>
-0.3010 YOU HAVE IT
-0.3010 YOUR TASK </s>

\end\
