Language model created by QuickLM on Thu Nov 26 21:14:29 EST 2015
Copyright (c) 1996-2010 Carnegie Mellon University and Alexander I. Rudnicky

The model is in standard ARPA format, designed by Doug Paul while he was at MITRE.

The code that was used to produce this language model is available in Open Source.
Please visit http://www.speech.cs.cmu.edu/tools/ for more information

The (fixed) discount mass is 0.5. The backoffs are computed using the ratio method.
This model based on a corpus of 23 sentences and 33 words

\data\
ngram 1=33
ngram 2=56
ngram 3=46

\1-grams:
-0.9170 </s> -0.3010
-0.9170 <s> -0.2424
-2.2788 BACK -0.2450
-1.9777 BACKWARD -0.2450
-2.2788 BEGIN -0.2964
-2.2788 CANCEL -0.2964
-1.9777 DOWN -0.2450
-1.9777 EXPLORATION -0.2450
-2.2788 FAST -0.2450
-2.2788 FASTER -0.2450
-1.9777 FORWARD -0.2450
-1.5798 GO -0.2847
-2.2788 INTRODUCE -0.2987
-1.9777 LEFT -0.2450
-1.9777 MIMIC -0.2371
-1.9777 MOVE -0.2918
-2.2788 MUTE -0.2450
-1.8016 MY -0.2894
-2.2788 POWER -0.2987
-1.9777 RIGHT -0.2450
-2.2788 SHUT -0.2964
-2.2788 SLOWER -0.2450
-1.9777 SPEED -0.2941
-2.2788 SPIN -0.2987
-2.2788 SQUIRTLE -0.2450
-2.2788 STOP -0.2964
-2.2788 THE -0.2987
-1.8016 TO -0.2918
-1.9777 TURN -0.2918
-2.2788 TURTLEBOT -0.2450
-2.2788 UP -0.2450
-2.2788 VOICE -0.2450
-2.2788 YOURSELF -0.2450

\2-grams:
-1.6628 <s> BEGIN 0.0000
-1.6628 <s> CANCEL 0.0000
-1.6628 <s> FASTER 0.0000
-0.9638 <s> GO 0.0000
-1.6628 <s> INTRODUCE 0.0000
-1.6628 <s> MIMIC -0.1761
-1.3617 <s> MOVE 0.0000
-1.6628 <s> MUTE 0.0000
-1.6628 <s> POWER 0.0000
-1.6628 <s> SLOWER 0.0000
-1.3617 <s> SPEED 0.0000
-1.6628 <s> SPIN 0.0000
-1.6628 <s> SQUIRTLE 0.0000
-1.6628 <s> STOP 0.0000
-1.3617 <s> TURN 0.0000
-1.6628 <s> TURTLEBOT 0.0000
-0.3010 BACK </s> -0.3010
-0.3010 BACKWARD </s> -0.3010
-0.3010 BEGIN EXPLORATION 0.0000
-0.3010 CANCEL EXPLORATION 0.0000
-0.3010 DOWN </s> -0.3010
-0.3010 EXPLORATION </s> -0.3010
-0.3010 FAST </s> -0.3010
-0.3010 FASTER </s> -0.3010
-0.3010 FORWARD </s> -0.3010
-1.0000 GO BACKWARD 0.0000
-1.0000 GO FORWARD 0.0000
-0.5229 GO TO 0.0000
-0.3010 INTRODUCE YOURSELF 0.0000
-0.3010 LEFT </s> -0.3010
-0.6021 MIMIC </s> -0.3010
-0.6021 MIMIC MY -0.2218
-0.6021 MOVE BACKWARD 0.0000
-0.6021 MOVE FORWARD 0.0000
-0.3010 MUTE </s> -0.3010
-0.7782 MY LEFT 0.0000
-0.7782 MY RIGHT 0.0000
-0.7782 MY VOICE 0.0000
-0.3010 POWER SHUT 0.0000
-0.3010 RIGHT </s> -0.3010
-0.3010 SHUT DOWN 0.0000
-0.3010 SLOWER </s> -0.3010
-0.6021 SPEED DOWN 0.0000
-0.6021 SPEED UP 0.0000
-0.3010 SPIN FAST 0.0000
-0.3010 SQUIRTLE </s> -0.3010
-0.3010 STOP MIMIC -0.1761
-0.3010 THE BACK 0.0000
-0.4771 TO MY -0.1249
-0.7782 TO THE 0.0000
-0.6021 TURN LEFT 0.0000
-0.6021 TURN RIGHT 0.0000
-0.3010 TURTLEBOT </s> -0.3010
-0.3010 UP </s> -0.3010
-0.3010 VOICE </s> -0.3010
-0.3010 YOURSELF </s> -0.3010

\3-grams:
-0.3010 <s> BEGIN EXPLORATION
-0.3010 <s> CANCEL EXPLORATION
-0.3010 <s> FASTER </s>
-1.0000 <s> GO BACKWARD
-1.0000 <s> GO FORWARD
-0.5229 <s> GO TO
-0.3010 <s> INTRODUCE YOURSELF
-0.3010 <s> MIMIC MY
-0.6021 <s> MOVE BACKWARD
-0.6021 <s> MOVE FORWARD
-0.3010 <s> MUTE </s>
-0.3010 <s> POWER SHUT
-0.3010 <s> SLOWER </s>
-0.6021 <s> SPEED DOWN
-0.6021 <s> SPEED UP
-0.3010 <s> SPIN FAST
-0.3010 <s> SQUIRTLE </s>
-0.3010 <s> STOP MIMIC
-0.6021 <s> TURN LEFT
-0.6021 <s> TURN RIGHT
-0.3010 <s> TURTLEBOT </s>
-0.3010 BEGIN EXPLORATION </s>
-0.3010 CANCEL EXPLORATION </s>
-0.3010 GO BACKWARD </s>
-0.3010 GO FORWARD </s>
-0.4771 GO TO MY
-0.7782 GO TO THE
-0.3010 INTRODUCE YOURSELF </s>
-0.3010 MIMIC MY VOICE
-0.3010 MOVE BACKWARD </s>
-0.3010 MOVE FORWARD </s>
-0.3010 MY LEFT </s>
-0.3010 MY RIGHT </s>
-0.3010 MY VOICE </s>
-0.3010 POWER SHUT DOWN
-0.3010 SHUT DOWN </s>
-0.3010 SPEED DOWN </s>
-0.3010 SPEED UP </s>
-0.3010 SPIN FAST </s>
-0.3010 STOP MIMIC </s>
-0.3010 THE BACK </s>
-0.6021 TO MY LEFT
-0.6021 TO MY RIGHT
-0.3010 TO THE BACK
-0.3010 TURN LEFT </s>
-0.3010 TURN RIGHT </s>

\end\
