Language model created by QuickLM on Tue Dec  8 13:40:47 EST 2015
Copyright (c) 1996-2010 Carnegie Mellon University and Alexander I. Rudnicky

The model is in standard ARPA format, designed by Doug Paul while he was at MITRE.

The code that was used to produce this language model is available in Open Source.
Please visit http://www.speech.cs.cmu.edu/tools/ for more information

The (fixed) discount mass is 0.5. The backoffs are computed using the ratio method.
This model based on a corpus of 41 sentences and 60 words

\data\
ngram 1=60
ngram 2=102
ngram 3=81

\1-grams:
-0.9004 </s> -0.3010
-0.9004 <s> -0.2365
-2.5132 AM -0.2970
-2.5132 ANYTHING -0.2427
-2.0361 ARE -0.2970
-2.2122 BACKWARD -0.2427
-2.2122 BEGIN -0.2930
-2.5132 BUSY -0.2427
-2.5132 CANCEL -0.2984
-2.5132 CHARITY'S -0.2997
-2.5132 COME -0.2970
-2.5132 CURRENT -0.2984
-2.5132 DISMISS -0.2427
-2.2122 DOING -0.2411
-2.5132 DOWN -0.2427
-2.5132 END -0.2427
-2.5132 ENTER -0.2957
-2.2122 EXPLORATION -0.2427
-2.5132 FORGET -0.2997
-2.2122 FORWARD -0.2427
-2.0361 GO -0.2943
-2.5132 GOTO -0.2997
-2.5132 GRASP -0.2997
-2.5132 GREETINGS -0.2984
-2.5132 HELLO -0.2427
-2.0361 HERE -0.2427
-2.5132 HOW -0.2970
-2.5132 I -0.2997
-2.5132 I'M -0.2970
-2.5132 INTRODUCE -0.2997
-2.5132 IT -0.2427
-2.5132 JARVIS -0.2427
-2.5132 LAB -0.2427
-2.5132 LEFT -0.2427
-1.9112 MIMIC -0.2427
-2.2122 MOVE -0.2957
-2.5132 MUTE -0.2427
-2.2122 NO -0.2411
-2.5132 NOTHING -0.2427
-2.5132 OFFICE -0.2427
-2.5132 POWER -0.2997
-2.5132 RIGHT -0.2427
-2.5132 SHUT -0.2997
-2.5132 SPIN -0.2427
-2.5132 SPINNING -0.2427
-2.5132 SQUIRTLE -0.2427
-2.5132 START -0.2957
-2.0361 STOP -0.2930
-2.2122 TASK -0.2427
-2.5132 THANKS -0.2427
-2.5132 TO -0.2997
-2.2122 TURN -0.2984
-2.2122 TURTLEBOT -0.2427
-2.5132 UP -0.2427
-2.5132 WHAT -0.2970
-2.5132 WHATS -0.2997
-2.5132 YES -0.2427
-2.0361 YOU -0.2381
-2.5132 YOUR -0.2984
-2.5132 YOURSELF -0.2427

\2-grams:
-1.9138 <s> ARE 0.0000
-1.6128 <s> BEGIN 0.0000
-1.9138 <s> CANCEL 0.0000
-1.9138 <s> COME 0.0000
-1.9138 <s> DISMISS 0.0000
-1.9138 <s> DOING -0.1761
-1.9138 <s> END 0.0000
-1.9138 <s> ENTER 0.0000
-1.9138 <s> FORGET 0.0000
-1.4367 <s> GO 0.0000
-1.9138 <s> GOTO 0.0000
-1.9138 <s> GREETINGS 0.0000
-1.9138 <s> HELLO 0.0000
-1.9138 <s> HOW 0.0000
-1.9138 <s> I 0.0000
-1.9138 <s> I'M 0.0000
-1.9138 <s> INTRODUCE 0.0000
-1.9138 <s> JARVIS 0.0000
-1.6128 <s> MOVE 0.0000
-1.9138 <s> MUTE 0.0000
-1.6128 <s> NO 0.0000
-1.9138 <s> NOTHING 0.0000
-1.9138 <s> POWER 0.0000
-1.9138 <s> SPIN 0.0000
-1.9138 <s> SPINNING 0.0000
-1.9138 <s> SQUIRTLE 0.0000
-1.9138 <s> START 0.0000
-1.4367 <s> STOP 0.0000
-1.6128 <s> TURN 0.0000
-1.9138 <s> TURTLEBOT 0.0000
-1.9138 <s> WHAT 0.0000
-1.9138 <s> WHATS 0.0000
-1.9138 <s> YES 0.0000
-0.3010 AM HERE 0.0000
-0.3010 ANYTHING </s> -0.3010
-0.3010 ARE YOU 0.0000
-0.3010 BACKWARD </s> -0.3010
-0.6021 BEGIN EXPLORATION 0.0000
-0.6021 BEGIN MIMIC 0.0000
-0.3010 BUSY </s> -0.3010
-0.3010 CANCEL EXPLORATION 0.0000
-0.3010 CHARITY'S OFFICE 0.0000
-0.3010 COME HERE 0.0000
-0.3010 CURRENT TASK 0.0000
-0.3010 DISMISS </s> -0.3010
-0.6021 DOING </s> -0.3010
-0.6021 DOING ANYTHING 0.0000
-0.3010 DOWN </s> -0.3010
-0.3010 END </s> -0.3010
-0.3010 ENTER MIMIC 0.0000
-0.3010 EXPLORATION </s> -0.3010
-0.3010 FORGET IT 0.0000
-0.3010 FORWARD </s> -0.3010
-0.7782 GO BACKWARD 0.0000
-0.7782 GO FORWARD 0.0000
-0.7782 GO TO 0.0000
-0.3010 GOTO GRASP 0.0000
-0.3010 GRASP LAB 0.0000
-0.3010 GREETINGS TURTLEBOT 0.0000
-0.3010 HELLO </s> -0.3010
-0.3010 HERE </s> -0.3010
-0.3010 HOW ARE 0.0000
-0.3010 I AM 0.0000
-0.3010 I'M HERE 0.0000
-0.3010 INTRODUCE YOURSELF 0.0000
-0.3010 IT </s> -0.3010
-0.3010 JARVIS </s> -0.3010
-0.3010 LAB </s> -0.3010
-0.3010 LEFT </s> -0.3010
-0.3010 MIMIC </s> -0.3010
-0.6021 MOVE BACKWARD 0.0000
-0.6021 MOVE FORWARD 0.0000
-0.3010 MUTE </s> -0.3010
-0.6021 NO </s> -0.3010
-0.6021 NO THANKS 0.0000
-0.3010 NOTHING </s> -0.3010
-0.3010 OFFICE </s> -0.3010
-0.3010 POWER SHUT 0.0000
-0.3010 RIGHT </s> -0.3010
-0.3010 SHUT DOWN 0.0000
-0.3010 SPIN </s> -0.3010
-0.3010 SPINNING </s> -0.3010
-0.3010 SQUIRTLE </s> -0.3010
-0.3010 START MIMIC 0.0000
-0.7782 STOP CURRENT 0.0000
-0.7782 STOP MIMIC 0.0000
-0.7782 STOP YOUR 0.0000
-0.3010 TASK </s> -0.3010
-0.3010 THANKS </s> -0.3010
-0.3010 TO CHARITY'S 0.0000
-0.6021 TURN LEFT 0.0000
-0.6021 TURN RIGHT 0.0000
-0.3010 TURTLEBOT </s> -0.3010
-0.3010 UP </s> -0.3010
-0.3010 WHAT ARE 0.0000
-0.3010 WHATS UP 0.0000
-0.3010 YES </s> -0.3010
-0.7782 YOU </s> -0.3010
-0.7782 YOU BUSY 0.0000
-0.7782 YOU DOING -0.1761
-0.3010 YOUR TASK 0.0000
-0.3010 YOURSELF </s> -0.3010

\3-grams:
-0.3010 <s> ARE YOU
-0.6021 <s> BEGIN EXPLORATION
-0.6021 <s> BEGIN MIMIC
-0.3010 <s> CANCEL EXPLORATION
-0.3010 <s> COME HERE
-0.3010 <s> DISMISS </s>
-0.3010 <s> DOING ANYTHING
-0.3010 <s> END </s>
-0.3010 <s> ENTER MIMIC
-0.3010 <s> FORGET IT
-0.7782 <s> GO BACKWARD
-0.7782 <s> GO FORWARD
-0.7782 <s> GO TO
-0.3010 <s> GOTO GRASP
-0.3010 <s> GREETINGS TURTLEBOT
-0.3010 <s> HELLO </s>
-0.3010 <s> HOW ARE
-0.3010 <s> I AM
-0.3010 <s> I'M HERE
-0.3010 <s> INTRODUCE YOURSELF
-0.3010 <s> JARVIS </s>
-0.6021 <s> MOVE BACKWARD
-0.6021 <s> MOVE FORWARD
-0.3010 <s> MUTE </s>
-0.6021 <s> NO </s>
-0.6021 <s> NO THANKS
-0.3010 <s> NOTHING </s>
-0.3010 <s> POWER SHUT
-0.3010 <s> SPIN </s>
-0.3010 <s> SPINNING </s>
-0.3010 <s> SQUIRTLE </s>
-0.3010 <s> START MIMIC
-0.7782 <s> STOP CURRENT
-0.7782 <s> STOP MIMIC
-0.7782 <s> STOP YOUR
-0.6021 <s> TURN LEFT
-0.6021 <s> TURN RIGHT
-0.3010 <s> TURTLEBOT </s>
-0.3010 <s> WHAT ARE
-0.3010 <s> WHATS UP
-0.3010 <s> YES </s>
-0.3010 AM HERE </s>
-0.7782 ARE YOU </s>
-0.7782 ARE YOU BUSY
-0.7782 ARE YOU DOING
-0.3010 BEGIN EXPLORATION </s>
-0.3010 BEGIN MIMIC </s>
-0.3010 CANCEL EXPLORATION </s>
-0.3010 CHARITY'S OFFICE </s>
-0.3010 COME HERE </s>
-0.3010 CURRENT TASK </s>
-0.3010 DOING ANYTHING </s>
-0.3010 ENTER MIMIC </s>
-0.3010 FORGET IT </s>
-0.3010 GO BACKWARD </s>
-0.3010 GO FORWARD </s>
-0.3010 GO TO CHARITY'S
-0.3010 GOTO GRASP LAB
-0.3010 GRASP LAB </s>
-0.3010 GREETINGS TURTLEBOT </s>
-0.3010 HOW ARE YOU
-0.3010 I AM HERE
-0.3010 I'M HERE </s>
-0.3010 INTRODUCE YOURSELF </s>
-0.3010 MOVE BACKWARD </s>
-0.3010 MOVE FORWARD </s>
-0.3010 NO THANKS </s>
-0.3010 POWER SHUT DOWN
-0.3010 SHUT DOWN </s>
-0.3010 START MIMIC </s>
-0.3010 STOP CURRENT TASK
-0.3010 STOP MIMIC </s>
-0.3010 STOP YOUR TASK
-0.3010 TO CHARITY'S OFFICE
-0.3010 TURN LEFT </s>
-0.3010 TURN RIGHT </s>
-0.3010 WHAT ARE YOU
-0.3010 WHATS UP </s>
-0.3010 YOU BUSY </s>
-0.3010 YOU DOING </s>
-0.3010 YOUR TASK </s>

\end\
